-178.518
-58.5727
-147.008
-47.1399
21.9673
86.8867
19.8449
-86.6824
1.95825
-109.039
-51.6145
-125.839
33.3088
-94.024
1.0745
1.06227
-75.9508
-142.851
-57.2831
24.958
218.62
-37.4448
-157.675
-73.1639
21.7081
85.1288
123.628
102.804
-14.4845
18.783
35.2613
-2.15844
5.33043
40.5322
155.286
2.60549
66.3528
12.8737
-5.24149
6.41705
61.0428
-8.36692
1.82909
-91.3328
82.0258
4.34569
-6.18655
1.00586
-76.9199
-1.1181
-30.5173
-1.1553
1.36829
-1.25397
1.72334
-25.2146
1.82607
-1.96772
34.1268
31.6956
-22.8346
3.58582
2.28517
-49.1182
-25.9774
-1.62339
-1.57848
60.9786
19.9126
1.40638
1.8597
0.00896168
-55.8195
1.25766
-1.96871
-1.13652
-1.09416
-1.32064
8.39096
1.27277
-158.812
-61.3169
-144.992
-53.271
29.6771
80.2495
28.5865
-89.6579
1.95825
-111.834
-39.6856
-130.539
35.1017
-98.8122
1.0745
1.06227
-84.9809
-152.014
-49.6472
21.5443
214.085
-41.1785
-152.943
-70.9515
17.1253
74.413
122.115
107.659
-14.0822
18.193
30.3867
-2.15844
5.33043
41.9222
154.48
2.60549
69.6231
16.2435
-11.6706
9.64291
64.7272
-8.36692
1.82909
-81.5785
82.9669
5.29245
-4.5145
1.00586
-76.2157
-1.1181
-27.9627
-1.17107
1.37086
5.70863
1.72828
-27.9075
1.81558
-1.96772
32.6351
32.9527
-20.1292
3.58582
2.28517
-51.7935
-26.9174
-1.62791
-1.57848
59.8914
20.1959
1.40638
1.8597
0.00896168
-58.4421
1.26299
-1.97783
-1.13652
-1.0913
-1.31849
9.85555
1.27277
-159.605
-61.3169
-144.992
-53.3248
29.6771
80.2495
28.5865
-89.6579
1.95825
-111.834
-39.6856
-130.539
35.1401
-98.8122
1.0745
1.06227
-84.9925
-152.014
-49.6472
21.5443
214.085
-41.1785
-152.943
-70.9515
17.1253
74.413
122.115
107.659
-14.0822
18.193
30.3867
-2.15844
5.34053
41.9222
154.48
2.61218
69.6231
16.2443
-11.6706
9.64291
64.7326
-8.36004
1.82909
-81.5785
82.9669
5.29464
-4.5145
1.00586
-76.2157
-1.1181
-27.9627
-1.17107
1.37086
5.70863
1.72828
-27.9075
1.81558
-1.96772
32.6351
32.9527
-20.1292
3.58582
2.28113
-51.7902
-26.9174
-1.62791
-1.57848
59.8914
20.1959
1.40638
1.8597
0.00896168
-58.4421
1.26299
-1.95402
-1.13652
-1.0913
-1.31849
9.85555
1.27277
-189.459
-64.0233
-145.758
-44.4574
19.1342
85.6792
11.9226
-74.3587
1.95825
-106.028
-58.5746
-123.57
30.8795
-109.499
1.0745
1.06227
-72.1113
-145.356
-63.0424
20.1815
220.808
-37.1504
-153.98
-89.08
23.5398
85.541
124.422
99.0206
-16.1561
18.9085
40.581
3.31898
9.4282
46.0588
157.497
2.60549
66.1887
12.8471
-5.24149
10.2028
64.0317
-9.60393
1.81175
-90.4305
82.1126
4.35479
-7.63529
5.25979
-77.7264
-1.12421
-34.0969
-1.16958
1.37086
-1.25133
1.72334
-23.4677
1.82607
-1.96772
33.7728
31.8378
-20.0358
3.58582
2.27581
-47.5046
-21.7148
-1.62339
-1.57734
61.6974
20.9775
1.61205
1.8597
0.00896168
-58.1594
1.26322
-1.96871
-1.13652
-1.09416
-1.31496
7.16641
1.27277
-178.799
-58.5727
-147.008
-47.1399
21.4252
87.2648
19.5205
-86.0789
1.95825
-109.039
-51.1633
-125.839
33.3088
-94.2084
1.0745
1.06227
-75.9508
-142.712
-57.303
24.958
218.62
-37.4951
-157.675
-73.6997
21.7081
85.1213
123.632
102.804
-14.4845
18.7954
35.2613
-2.15844
5.33043
40.5322
155.286
2.60549
66.3528
12.8729
-5.24149
6.41203
61.0428
-8.33007
1.82909
-91.3271
82.0107
4.34037
-6.183
1.00586
-76.9628
-1.1181
-30.4991
-1.15925
1.37086
-1.26486
1.72828
-25.2146
1.81558
-1.96821
34.1409
31.6956
-22.8519
3.58582
2.28517
-49.1131
-25.9774
-1.62791
-1.57848
60.9777
19.9161
1.40638
1.8597
0.00896168
-55.8195
1.26299
-1.97783
-1.13652
-1.0913
-1.29843
8.40231
1.27591
-178.518
-58.5727
-147.008
-47.1399
21.9673
86.8867
20.1992
-86.6824
1.95825
-109.039
-51.6145
-126.05
33.3088
-94.024
1.0745
1.06227
-75.9508
-142.851
-57.2831
24.9437
218.62
-37.4448
-157.675
-73.1639
21.7081
85.1288
123.628
102.804
-14.4845
18.783
35.2613
-2.15844
5.33043
40.5322
155.286
2.60549
66.3528
12.8737
-5.23491
6.41705
61.0428
-8.36692
1.82909
-91.3292
82.0258
4.34569
-6.18655
1.00586
-76.9199
-1.11466
-30.5173
-1.1553
1.36829
-1.25397
1.7266
-25.2146
1.82835
-1.96772
34.1268
31.6956
-22.8459
3.58582
2.28517
-49.1182
-25.9774
-1.62339
-1.57848
60.9786
19.9126
1.40638
1.8597
0.00896168
-55.8195
1.25766
-1.96871
-1.13652
-1.09416
-1.32064
8.39096
1.27277
-178.518
-58.5727
-146.95
-47.1399
21.9673
86.8867
19.8449
-86.6824
1.95825
-109.039
-51.6145
-125.839
33.3088
-94.0244
1.0745
1.06227
-75.9508
-142.851
-57.2831
24.958
218.62
-37.4312
-157.675
-73.1639
21.7081
85.1288
123.626
102.804
-14.499
18.783
35.2613
-2.15844
5.33043
40.5322
155.303
2.60549
66.3528
12.8737
-5.24149
6.41653
61.0312
-8.36692
1.82909
-91.3328
82.0258
4.34569
-6.2059
1.00586
-76.9199
-1.11483
-30.5173
-1.1553
1.36829
-1.25397
1.72334
-25.2146
1.82607
-1.97122
34.1204
31.6928
-22.8346
3.58582
2.28517
-49.1182
-25.9774
-1.62339
-1.57848
60.9786
19.9126
1.40638
1.84732
0.00896168
-55.8279
1.25766
-1.96871
-1.13908
-1.09002
-1.32064
8.39096
1.27277
-158.812
-61.3169
-144.992
-53.271
29.6771
80.2473
28.5865
-89.6579
1.95825
-111.834
-39.6856
-130.539
35.1017
-98.8122
1.0745
1.06227
-85.2261
-152.014
-49.6472
21.5443
214.085
-41.1785
-152.943
-70.9515
17.1253
74.413
122.338
107.659
-14.0822
18.193
30.3867
-2.15844
5.33043
41.9222
154.48
2.60549
69.6197
16.2435
-11.6706
9.64291
64.7272
-8.36692
1.82909
-81.5785
82.9669
5.29245
-4.50354
1.00586
-76.2157
-1.1181
-27.9643
-1.17107
1.37086
5.70863
1.72828
-27.9075
1.81558
-1.96772
32.6351
32.9442
-20.1305
3.58582
2.28517
-51.7935
-26.9174
-1.62791
-1.57848
59.8914
20.1959
1.40638
1.87328
0.00896168
-58.4421
1.26299
-1.97783
-1.12603
-1.10695
-1.31849
9.85555
1.27277
-178.518
-58.5727
-147.008
-47.1399
21.9673
86.8867
19.8449
-86.6824
1.95825
-109.039
-51.8046
-125.839
33.0747
-94.024
1.0745
1.06227
-75.9508
-142.851
-57.2831
24.8962
218.62
-37.4448
-157.675
-73.1639
21.7081
85.1288
123.628
102.804
-14.4845
18.783
35.2641
-2.15844
5.34275
40.5248
155.299
2.60549
66.3528
12.8737
-5.24221
6.41705
61.0428
-8.36692
1.83926
-91.3328
82.0329
4.34569
-6.18655
1.00586
-76.9199
-1.1181
-30.5173
-1.1553
1.37144
-1.25397
1.72334
-25.2146
1.82607
-1.96772
34.1268
31.6956
-22.8346
3.5864
2.28884
-49.1182
-25.9774
-1.62339
-1.57848
60.9786
19.9126
1.40638
1.8597
0.00896168
-55.8195
1.25766
-1.96871
-1.13652
-1.09416
-1.32064
8.38406
1.27277
-169.574-68.5561-148.382-28.606629.201385.337821.2912-100.3448.40765-105.546-53.9015-125.29937.2451-97.52471.0745-2.38601-75.5257-137.398-59.073724.2169216.492-37.0153-158.349-80.279125.505382.335121.43699.925-19.317321.949833.0458-2.1584411.212935.5709154.5372.6054967.01710.1016-3.044516.4120359.0272-8.386731.82909-94.649383.99598.78461-10.31831.00586-73.065-1.11202-29.3425-1.171071.38592-1.264861.72828-28.32131.81558-1.9682132.916329.5414-21.85852.746142.28517-47.5992-26.7093-1.62791-1.5784859.46217.55231.406381.222340.00896168-56.33251.26299-1.4196-1.13652-1.0913-1.298438.992491.27277